<?xml version="1.0"?>
<opencv_storage>
<cascade>
  <stageType>BOOST</stageType>
  <featureType>HAAR</featureType>
  <height>20</height>
  <width>30</width>
  <stageParams>
    <boostType>GAB</boostType>
    <minHitRate>9.9900001287460327e-01</minHitRate>
    <maxFalseAlarm>5.0000000000000000e-01</maxFalseAlarm>
    <weightTrimRate>9.4999999999999996e-01</weightTrimRate>
    <maxDepth>1</maxDepth>
    <maxWeakCount>100</maxWeakCount></stageParams>
  <featureParams>
    <maxCatCount>0</maxCatCount>
    <featSize>1</featSize>
    <mode>ALL</mode></featureParams>
  <stageNum>9</stageNum>
  <stages>
    <!-- stage 0 -->
    <_>
      <maxWeakCount>2</maxWeakCount>
      <stageThreshold>-3.2303232699632645e-02</stageThreshold>
      <weakClassifiers>
        <_>
          <internalNodes>
            0 -1 10 -2.5106169283390045e-02</internalNodes>
          <leafValues>
            9.3005132675170898e-01 -9.7271388769149780e-01</leafValues></_>
        <_>
          <internalNodes>
            0 -1 4 -5.5697999894618988e-02</internalNodes>
          <leafValues>
            9.4041067361831665e-01 -9.3214941024780273e-01</leafValues></_></weakClassifiers></_>
    <!-- stage 1 -->
    <_>
      <maxWeakCount>3</maxWeakCount>
      <stageThreshold>-1.0853941440582275e+00</stageThreshold>
      <weakClassifiers>
        <_>
          <internalNodes>
            0 -1 8 4.3538194149732590e-02</internalNodes>
          <leafValues>
            -9.5803838968276978e-01 9.0228831768035889e-01</leafValues></_>
        <_>
          <internalNodes>
            0 -1 22 2.6160132139921188e-02</internalNodes>
          <leafValues>
            -9.4077241420745850e-01 8.9115357398986816e-01</leafValues></_>
        <_>
          <internalNodes>
            0 -1 0 -3.7547711282968521e-02</internalNodes>
          <leafValues>
            8.1341671943664551e-01 -9.2562901973724365e-01</leafValues></_></weakClassifiers></_>
    <!-- stage 2 -->
    <_>
      <maxWeakCount>3</maxWeakCount>
      <stageThreshold>-1.0339864492416382e+00</stageThreshold>
      <weakClassifiers>
        <_>
          <internalNodes>
            0 -1 3 4.7734633088111877e-02</internalNodes>
          <leafValues>
            -9.1338175535202026e-01 8.0826139450073242e-01</leafValues></_>
        <_>
          <internalNodes>
            0 -1 21 3.4120880067348480e-02</internalNodes>
          <leafValues>
            -9.0100502967834473e-01 7.4103373289108276e-01</leafValues></_>
        <_>
          <internalNodes>
            0 -1 5 -4.0184177458286285e-02</internalNodes>
          <leafValues>
            8.0830895900726318e-01 -8.6163842678070068e-01</leafValues></_></weakClassifiers></_>
    <!-- stage 3 -->
    <_>
      <maxWeakCount>3</maxWeakCount>
      <stageThreshold>-1.1139401197433472e+00</stageThreshold>
      <weakClassifiers>
        <_>
          <internalNodes>
            0 -1 25 7.8892381861805916e-03</internalNodes>
          <leafValues>
            -8.9243644475936890e-01 7.9125374555587769e-01</leafValues></_>
        <_>
          <internalNodes>
            0 -1 2 3.8215056061744690e-02</internalNodes>
          <leafValues>
            -9.1754519939422607e-01 7.2929465770721436e-01</leafValues></_>
        <_>
          <internalNodes>
            0 -1 14 1.6130037605762482e-02</internalNodes>
          <leafValues>
            -9.1498297452926636e-01 6.9604158401489258e-01</leafValues></_></weakClassifiers></_>
    <!-- stage 4 -->
    <_>
      <maxWeakCount>3</maxWeakCount>
      <stageThreshold>-1.0998913049697876e+00</stageThreshold>
      <weakClassifiers>
        <_>
          <internalNodes>
            0 -1 1 -7.2122275829315186e-01</internalNodes>
          <leafValues>
            8.1052356958389282e-01 -8.4751844406127930e-01</leafValues></_>
        <_>
          <internalNodes>
            0 -1 9 4.9754776060581207e-02</internalNodes>
          <leafValues>
            -8.8933169841766357e-01 6.7095804214477539e-01</leafValues></_>
        <_>
          <internalNodes>
            0 -1 20 3.0464998417301103e-05</internalNodes>
          <leafValues>
            -9.0486985445022583e-01 6.3695889711380005e-01</leafValues></_></weakClassifiers></_>
    <!-- stage 5 -->
    <_>
      <maxWeakCount>3</maxWeakCount>
      <stageThreshold>-1.0762758255004883e+00</stageThreshold>
      <weakClassifiers>
        <_>
          <internalNodes>
            0 -1 7 -1.2060305103659630e-02</internalNodes>
          <leafValues>
            7.2966301441192627e-01 -8.4578710794448853e-01</leafValues></_>
        <_>
          <internalNodes>
            0 -1 26 -4.7099240124225616e-02</internalNodes>
          <leafValues>
            7.6467865705490112e-01 -7.8826332092285156e-01</leafValues></_>
        <_>
          <internalNodes>
            0 -1 23 -4.3185688555240631e-03</internalNodes>
          <leafValues>
            5.5777454376220703e-01 -9.4536006450653076e-01</leafValues></_></weakClassifiers></_>
    <!-- stage 6 -->
    <_>
      <maxWeakCount>3</maxWeakCount>
      <stageThreshold>-1.0662326812744141e+00</stageThreshold>
      <weakClassifiers>
        <_>
          <internalNodes>
            0 -1 24 1.1195432394742966e-02</internalNodes>
          <leafValues>
            -8.1311047077178955e-01 6.7667382955551147e-01</leafValues></_>
        <_>
          <internalNodes>
            0 -1 16 -5.9550687670707703e-02</internalNodes>
          <leafValues>
            6.6722434759140015e-01 -8.3997708559036255e-01</leafValues></_>
        <_>
          <internalNodes>
            0 -1 12 5.1065057516098022e-02</internalNodes>
          <leafValues>
            -9.0292936563491821e-01 6.1969953775405884e-01</leafValues></_></weakClassifiers></_>
    <!-- stage 7 -->
    <_>
      <maxWeakCount>4</maxWeakCount>
      <stageThreshold>-1.9912170171737671e+00</stageThreshold>
      <weakClassifiers>
        <_>
          <internalNodes>
            0 -1 18 1.5020919818198308e-05</internalNodes>
          <leafValues>
            -9.0196079015731812e-01 6.2199580669403076e-01</leafValues></_>
        <_>
          <internalNodes>
            0 -1 13 3.1023379415273666e-04</internalNodes>
          <leafValues>
            -9.1893416643142700e-01 4.9611482024192810e-01</leafValues></_>
        <_>
          <internalNodes>
            0 -1 17 6.7070588469505310e-02</internalNodes>
          <leafValues>
            -7.7885419130325317e-01 6.0896158218383789e-01</leafValues></_>
        <_>
          <internalNodes>
            0 -1 6 -1.5198828652501106e-02</internalNodes>
          <leafValues>
            6.0853213071823120e-01 -8.7004524469375610e-01</leafValues></_></weakClassifiers></_>
    <!-- stage 8 -->
    <_>
      <maxWeakCount>3</maxWeakCount>
      <stageThreshold>-1.1348118782043457e+00</stageThreshold>
      <weakClassifiers>
        <_>
          <internalNodes>
            0 -1 19 1.0024523735046387e-01</internalNodes>
          <leafValues>
            -8.3359313011169434e-01 6.5161287784576416e-01</leafValues></_>
        <_>
          <internalNodes>
            0 -1 11 1.5568765229545534e-04</internalNodes>
          <leafValues>
            -9.2749035358428955e-01 5.4933869838714600e-01</leafValues></_>
        <_>
          <internalNodes>
            0 -1 15 9.0797422453761101e-03</internalNodes>
          <leafValues>
            -8.0468457937240601e-01 6.2627160549163818e-01</leafValues></_></weakClassifiers></_></stages>
  <features>
    <_>
      <rects>
        <_>
          0 0 10 6 -1.</_>
        <_>
          0 0 5 3 2.</_>
        <_>
          5 3 5 3 2.</_></rects>
      <tilted>0</tilted></_>
    <_>
      <rects>
        <_>
          0 1 30 18 -1.</_>
        <_>
          10 7 10 6 9.</_></rects>
      <tilted>0</tilted></_>
    <_>
      <rects>
        <_>
          0 14 10 6 -1.</_>
        <_>
          0 14 5 3 2.</_>
        <_>
          5 17 5 3 2.</_></rects>
      <tilted>0</tilted></_>
    <_>
      <rects>
        <_>
          0 16 28 4 -1.</_>
        <_>
          0 17 28 2 2.</_></rects>
      <tilted>0</tilted></_>
    <_>
      <rects>
        <_>
          1 9 6 7 -1.</_>
        <_>
          4 9 3 7 2.</_></rects>
      <tilted>0</tilted></_>
    <_>
      <rects>
        <_>
          2 3 16 1 -1.</_>
        <_>
          6 7 8 1 2.</_></rects>
      <tilted>1</tilted></_>
    <_>
      <rects>
        <_>
          4 5 3 12 -1.</_>
        <_>
          5 5 1 12 3.</_></rects>
      <tilted>0</tilted></_>
    <_>
      <rects>
        <_>
          5 14 3 2 -1.</_>
        <_>
          5 14 3 1 2.</_></rects>
      <tilted>1</tilted></_>
    <_>
      <rects>
        <_>
          5 15 13 4 -1.</_>
        <_>
          5 17 13 2 2.</_></rects>
      <tilted>0</tilted></_>
    <_>
      <rects>
        <_>
          7 0 4 6 -1.</_>
        <_>
          7 0 2 6 2.</_></rects>
      <tilted>1</tilted></_>
    <_>
      <rects>
        <_>
          7 2 15 2 -1.</_>
        <_>
          7 3 15 1 2.</_></rects>
      <tilted>0</tilted></_>
    <_>
      <rects>
        <_>
          10 10 2 3 -1.</_>
        <_>
          11 10 1 3 2.</_></rects>
      <tilted>0</tilted></_>
    <_>
      <rects>
        <_>
          10 12 6 8 -1.</_>
        <_>
          10 16 6 4 2.</_></rects>
      <tilted>0</tilted></_>
    <_>
      <rects>
        <_>
          12 0 6 1 -1.</_>
        <_>
          14 0 2 1 3.</_></rects>
      <tilted>0</tilted></_>
    <_>
      <rects>
        <_>
          12 1 5 3 -1.</_>
        <_>
          12 2 5 1 3.</_></rects>
      <tilted>0</tilted></_>
    <_>
      <rects>
        <_>
          12 16 4 3 -1.</_>
        <_>
          12 17 4 1 3.</_></rects>
      <tilted>0</tilted></_>
    <_>
      <rects>
        <_>
          13 0 2 12 -1.</_>
        <_>
          10 3 2 6 2.</_></rects>
      <tilted>1</tilted></_>
    <_>
      <rects>
        <_>
          14 5 16 5 -1.</_>
        <_>
          22 5 8 5 2.</_></rects>
      <tilted>0</tilted></_>
    <_>
      <rects>
        <_>
          15 8 2 2 -1.</_>
        <_>
          15 8 1 1 2.</_>
        <_>
          16 9 1 1 2.</_></rects>
      <tilted>0</tilted></_>
    <_>
      <rects>
        <_>
          16 3 14 8 -1.</_>
        <_>
          23 3 7 8 2.</_></rects>
      <tilted>0</tilted></_>
    <_>
      <rects>
        <_>
          16 7 1 2 -1.</_>
        <_>
          16 8 1 1 2.</_></rects>
      <tilted>0</tilted></_>
    <_>
      <rects>
        <_>
          20 0 10 6 -1.</_>
        <_>
          20 0 5 3 2.</_>
        <_>
          25 3 5 3 2.</_></rects>
      <tilted>0</tilted></_>
    <_>
      <rects>
        <_>
          24 2 4 11 -1.</_>
        <_>
          26 2 2 11 2.</_></rects>
      <tilted>0</tilted></_>
    <_>
      <rects>
        <_>
          24 14 6 6 -1.</_>
        <_>
          24 14 3 3 2.</_>
        <_>
          27 17 3 3 2.</_></rects>
      <tilted>0</tilted></_>
    <_>
      <rects>
        <_>
          25 1 3 2 -1.</_>
        <_>
          25 1 3 1 2.</_></rects>
      <tilted>1</tilted></_>
    <_>
      <rects>
        <_>
          25 10 2 7 -1.</_>
        <_>
          26 10 1 7 2.</_></rects>
      <tilted>0</tilted></_>
    <_>
      <rects>
        <_>
          26 4 4 12 -1.</_>
        <_>
          26 4 2 12 2.</_></rects>
      <tilted>1</tilted></_></features></cascade>
</opencv_storage>
